<?xml version="1.0"?>
<opencv_storage>
<!-- Created using Computer Vision Toolbox(tm) for MATLAB(R) -->
<!-- Version 9.7.0.1296695 (R2019b) Update 4 -->
<!-- Compatible with OpenCV 3.4 -->
<cascade>
  <stageType>BOOST</stageType>
  <featureType>HAAR</featureType>
  <height>32</height>
  <width>46</width>
  <stageParams>
    <boostType>GAB</boostType>
    <minHitRate>9.9900001287460327e-01</minHitRate>
    <maxFalseAlarm>2.0000000298023224e-01</maxFalseAlarm>
    <weightTrimRate>9.4999999999999996e-01</weightTrimRate>
    <maxDepth>1</maxDepth>
    <maxWeakCount>100</maxWeakCount></stageParams>
  <featureParams>
    <maxCatCount>0</maxCatCount>
    <featSize>1</featSize>
    <mode>BASIC</mode></featureParams>
  <stageNum>5</stageNum>
  <stages>
    <!-- stage 0 -->
    <_>
      <maxWeakCount>4</maxWeakCount>
      <stageThreshold>-1.7923061847686768e+00</stageThreshold>
      <weakClassifiers>
        <_>
          <internalNodes>
            0 -1 8 1.9066970050334930e-01</internalNodes>
          <leafValues>
            -9.2884373664855957e-01 9.0358465909957886e-01</leafValues></_>
        <_>
          <internalNodes>
            0 -1 1 6.2904865480959415e-03</internalNodes>
          <leafValues>
            -8.5185813903808594e-01 8.7957227230072021e-01</leafValues></_>
        <_>
          <internalNodes>
            0 -1 12 3.2790515571832657e-02</internalNodes>
          <leafValues>
            -6.9621115922927856e-01 9.3979787826538086e-01</leafValues></_>
        <_>
          <internalNodes>
            0 -1 10 2.5238814949989319e-01</internalNodes>
          <leafValues>
            -1. 6.8460679054260254e-01</leafValues></_></weakClassifiers></_>
    <!-- stage 1 -->
    <_>
      <maxWeakCount>5</maxWeakCount>
      <stageThreshold>-1.0554755926132202e+00</stageThreshold>
      <weakClassifiers>
        <_>
          <internalNodes>
            0 -1 7 3.5144809633493423e-02</internalNodes>
          <leafValues>
            -7.8034681081771851e-01 9.2339259386062622e-01</leafValues></_>
        <_>
          <internalNodes>
            0 -1 6 3.0521210283041000e-02</internalNodes>
          <leafValues>
            -8.4761399030685425e-01 7.5149106979370117e-01</leafValues></_>
        <_>
          <internalNodes>
            0 -1 24 -5.9258611872792244e-03</internalNodes>
          <leafValues>
            8.6771023273468018e-01 -7.0636266469955444e-01</leafValues></_>
        <_>
          <internalNodes>
            0 -1 14 1.0417558252811432e-02</internalNodes>
          <leafValues>
            -9.6690273284912109e-01 5.9216600656509399e-01</leafValues></_>
        <_>
          <internalNodes>
            0 -1 4 6.9915037602186203e-03</internalNodes>
          <leafValues>
            -7.6401984691619873e-01 6.8668192625045776e-01</leafValues></_></weakClassifiers></_>
    <!-- stage 2 -->
    <_>
      <maxWeakCount>5</maxWeakCount>
      <stageThreshold>-2.0195951461791992e+00</stageThreshold>
      <weakClassifiers>
        <_>
          <internalNodes>
            0 -1 19 -4.2861115187406540e-02</internalNodes>
          <leafValues>
            8.6304908990859985e-01 -8.1265205144882202e-01</leafValues></_>
        <_>
          <internalNodes>
            0 -1 22 -1.0551081970334053e-02</internalNodes>
          <leafValues>
            8.6081874370574951e-01 -6.3943523168563843e-01</leafValues></_>
        <_>
          <internalNodes>
            0 -1 11 7.0524364709854126e-02</internalNodes>
          <leafValues>
            -7.2818416357040405e-01 7.3044949769973755e-01</leafValues></_>
        <_>
          <internalNodes>
            0 -1 13 -2.5875721126794815e-02</internalNodes>
          <leafValues>
            7.0936357975006104e-01 -6.6937565803527832e-01</leafValues></_>
        <_>
          <internalNodes>
            0 -1 0 9.9180284887552261e-03</internalNodes>
          <leafValues>
            -6.7020207643508911e-01 6.7138123512268066e-01</leafValues></_></weakClassifiers></_>
    <!-- stage 3 -->
    <_>
      <maxWeakCount>6</maxWeakCount>
      <stageThreshold>-7.8664165735244751e-01</stageThreshold>
      <weakClassifiers>
        <_>
          <internalNodes>
            0 -1 15 2.2317075729370117e-01</internalNodes>
          <leafValues>
            -8.6859393119812012e-01 7.9161673784255981e-01</leafValues></_>
        <_>
          <internalNodes>
            0 -1 3 2.9268912039697170e-03</internalNodes>
          <leafValues>
            -7.9370820522308350e-01 7.0714771747589111e-01</leafValues></_>
        <_>
          <internalNodes>
            0 -1 9 3.4412676095962524e-01</internalNodes>
          <leafValues>
            -7.1344894170761108e-01 6.1087417602539062e-01</leafValues></_>
        <_>
          <internalNodes>
            0 -1 25 -1.0075012687593699e-03</internalNodes>
          <leafValues>
            6.3123750686645508e-01 -7.1498990058898926e-01</leafValues></_>
        <_>
          <internalNodes>
            0 -1 5 4.0245212614536285e-02</internalNodes>
          <leafValues>
            -7.4288296699523926e-01 6.3443970680236816e-01</leafValues></_>
        <_>
          <internalNodes>
            0 -1 17 5.1087057217955589e-03</internalNodes>
          <leafValues>
            -9.6456104516983032e-01 3.7643173336982727e-01</leafValues></_></weakClassifiers></_>
    <!-- stage 4 -->
    <_>
      <maxWeakCount>6</maxWeakCount>
      <stageThreshold>-4.5299863815307617e-01</stageThreshold>
      <weakClassifiers>
        <_>
          <internalNodes>
            0 -1 20 -2.4411404505372047e-02</internalNodes>
          <leafValues>
            9.0367555618286133e-01 -6.9180327653884888e-01</leafValues></_>
        <_>
          <internalNodes>
            0 -1 2 2.1174775436520576e-02</internalNodes>
          <leafValues>
            -4.4014650583267212e-01 8.6113852262496948e-01</leafValues></_>
        <_>
          <internalNodes>
            0 -1 16 2.7191575616598129e-02</internalNodes>
          <leafValues>
            -9.3562501668930054e-01 5.2478128671646118e-01</leafValues></_>
        <_>
          <internalNodes>
            0 -1 23 4.9016801640391350e-03</internalNodes>
          <leafValues>
            -5.4738324880599976e-01 7.7661234140396118e-01</leafValues></_>
        <_>
          <internalNodes>
            0 -1 18 -6.8562068918254226e-05</internalNodes>
          <leafValues>
            -8.9020651578903198e-01 4.9810278415679932e-01</leafValues></_>
        <_>
          <internalNodes>
            0 -1 21 -4.9603392835706472e-04</internalNodes>
          <leafValues>
            3.6257159709930420e-01 -9.1036754846572876e-01</leafValues></_></weakClassifiers></_></stages>
  <features>
    <_>
      <rects>
        <_>
          0 3 6 14 -1.</_>
        <_>
          3 3 3 14 2.</_></rects>
      <tilted>0</tilted></_>
    <_>
      <rects>
        <_>
          0 7 2 25 -1.</_>
        <_>
          1 7 1 25 2.</_></rects>
      <tilted>0</tilted></_>
    <_>
      <rects>
        <_>
          0 8 9 9 -1.</_>
        <_>
          3 8 3 9 3.</_></rects>
      <tilted>0</tilted></_>
    <_>
      <rects>
        <_>
          0 17 2 8 -1.</_>
        <_>
          1 17 1 8 2.</_></rects>
      <tilted>0</tilted></_>
    <_>
      <rects>
        <_>
          0 30 14 2 -1.</_>
        <_>
          7 30 7 2 2.</_></rects>
      <tilted>0</tilted></_>
    <_>
      <rects>
        <_>
          3 20 42 12 -1.</_>
        <_>
          3 26 42 6 2.</_></rects>
      <tilted>0</tilted></_>
    <_>
      <rects>
        <_>
          4 4 14 24 -1.</_>
        <_>
          4 4 7 12 2.</_>
        <_>
          11 16 7 12 2.</_></rects>
      <tilted>0</tilted></_>
    <_>
      <rects>
        <_>
          5 20 12 12 -1.</_>
        <_>
          5 26 12 6 2.</_></rects>
      <tilted>0</tilted></_>
    <_>
      <rects>
        <_>
          6 15 39 8 -1.</_>
        <_>
          19 15 13 8 3.</_></rects>
      <tilted>0</tilted></_>
    <_>
      <rects>
        <_>
          7 11 39 15 -1.</_>
        <_>
          20 11 13 15 3.</_></rects>
      <tilted>0</tilted></_>
    <_>
      <rects>
        <_>
          7 11 39 16 -1.</_>
        <_>
          20 11 13 16 3.</_></rects>
      <tilted>0</tilted></_>
    <_>
      <rects>
        <_>
          7 15 20 6 -1.</_>
        <_>
          17 15 10 6 2.</_></rects>
      <tilted>0</tilted></_>
    <_>
      <rects>
        <_>
          7 18 8 14 -1.</_>
        <_>
          7 25 8 7 2.</_></rects>
      <tilted>0</tilted></_>
    <_>
      <rects>
        <_>
          9 0 4 30 -1.</_>
        <_>
          9 10 4 10 3.</_></rects>
      <tilted>0</tilted></_>
    <_>
      <rects>
        <_>
          9 17 16 2 -1.</_>
        <_>
          17 17 8 2 2.</_></rects>
      <tilted>0</tilted></_>
    <_>
      <rects>
        <_>
          10 4 27 17 -1.</_>
        <_>
          19 4 9 17 3.</_></rects>
      <tilted>0</tilted></_>
    <_>
      <rects>
        <_>
          15 2 15 18 -1.</_>
        <_>
          20 2 5 18 3.</_></rects>
      <tilted>0</tilted></_>
    <_>
      <rects>
        <_>
          17 23 12 9 -1.</_>
        <_>
          21 23 4 9 3.</_></rects>
      <tilted>0</tilted></_>
    <_>
      <rects>
        <_>
          28 20 9 7 -1.</_>
        <_>
          31 20 3 7 3.</_></rects>
      <tilted>0</tilted></_>
    <_>
      <rects>
        <_>
          29 3 12 20 -1.</_>
        <_>
          29 3 6 10 2.</_>
        <_>
          35 13 6 10 2.</_></rects>
      <tilted>0</tilted></_>
    <_>
      <rects>
        <_>
          32 6 10 20 -1.</_>
        <_>
          32 6 5 10 2.</_>
        <_>
          37 16 5 10 2.</_></rects>
      <tilted>0</tilted></_>
    <_>
      <rects>
        <_>
          36 15 6 14 -1.</_>
        <_>
          36 15 3 7 2.</_>
        <_>
          39 22 3 7 2.</_></rects>
      <tilted>0</tilted></_>
    <_>
      <rects>
        <_>
          42 3 4 15 -1.</_>
        <_>
          44 3 2 15 2.</_></rects>
      <tilted>0</tilted></_>
    <_>
      <rects>
        <_>
          43 18 3 14 -1.</_>
        <_>
          44 18 1 14 3.</_></rects>
      <tilted>0</tilted></_>
    <_>
      <rects>
        <_>
          44 4 2 24 -1.</_>
        <_>
          45 4 1 24 2.</_></rects>
      <tilted>0</tilted></_>
    <_>
      <rects>
        <_>
          44 20 2 4 -1.</_>
        <_>
          45 20 1 4 2.</_></rects>
      <tilted>0</tilted></_></features></cascade>
</opencv_storage>
